[[-2.7289930172982007,-2.844582146284969,-2.0264074666123495,-1.1856850347148116,5.6154963406299627,-0.90310887389457739,2.2370148671200334,0.86329366127137253,4.3865934837247682,1.3383033491665794,4.555504641415272,-2.2327907892215273,-1.7422972660485148,-5.3455392958908492,-0.25699536882171869,-6.7983201727331251,2.7092912353368588,-2.2019715911592974,-3.0229334528337679,-0.57274165554255807,5.5116993855666125,0.2185649897215827,-0.57833946476275611,0.75337029909576625,0.44239155680787273,-5.3228576590081174,-2.5800762009580342,-4.6414599813963537,5.8960940487027953,-3.5495582728561028,0.018242047227862612,-0.30121647779481964,5.4364001672541589,0.92523485423951091,0.42688852413429712,1.055068852297139,-1.536061846051674,1.7430904484127219,-2.4290591904314849,-4.3088207863717],[-3.4735258976112484,1.7328180328035503,1.8198958418506144,-4.5189865067058941,-3.8486117834804712,0.44129162390652277,1.2079843427697252,-2.9864469704128203,3.2824412446526159,0.24690752069220798,3.8343392832527363,-0.75738323241390471,0.986142667187214,-1.6642140151460278,3.5499441053105487,-2.1673235642070146,-2.0324436244849875,1.6160207562350193,-0.763109452692088,-0.4181433933701823],[-1.8020152698509746,-4.4399905284915837,-5.0247080446460393,-6.3111837656109895,-6.0723000358226757,-4.9099277229422835,0.49690794289409324,-6.5943109024659288,-2.2155514914788861,-3.1508578786509629]]